-0.079
0.009
-0.143
-0.486
0.0895
0.4095
0.39
-0.1865
-0.202
0.426
0.099
0.217
0.0285
-0.154
-0.077
-0.016
0.003
0.1155
0.3
-0.284
0.37
-0.3755
-0.242
0.3385
0.0465
-0.3415
0.495
-0.165
-0.3945
0.3195
0.0865
0.1005
0.277
0.0345
0.0665
0.468
0.4635
0.3815
-0.233
-0.171
-0.218
0.327
0.247
0.108
-0.1015
0.204
0.121
-0.2605
0.3545
0.311
-0.2205
0.2105
0.213
0.484
-0.2385
-0.2035
-0.249
0.0185
-0.033
-0.0695
0.414
0.0545
-0.2925
-0.022
-0.1605
0.4985
0.44
0.494
0.2795
-0.0455
0.0205
0.1215
-0.152
-0.029
0.4335
-0.4575
-0.1225
0.1495
-0.06
0.3425
0.0375
0.2555
-0.0195
-0.2055
0.0395
0.3755
0.387
0.293
-0.227
-0.23
0.2165
-0.0555
-0.0855
0.3365
-0.0855
0.2275
0.119
-0.2315
-0.2315
-0.1
0.264
0.127
-0.0405
-0.1005
-0.21
0.158
-0.138
-0.258
-0.45
-0.2815
0.4185
0.1015
-0.4215
0.1245
0.393
-0.3415
-0.4265
0.413
0.4385
-0.0365
-0.389
-0.3535
0.221
0.009
0.2375
-0.4245
-0.293
0.0115
-0.444
-0.294
-0.077
-0.3915
-0.1195
-0.46
-0.422
0.41
-0.2045
-0.419
-0.496
0.3815
0.0135
0.145
0.2425
-0.446
-0.149
-0.385
-0.134
0.29
0.443
-0.244
0.1535
0.206
-0.17
0.3045
-0.2115
0.117
0.406
0.4505
0.162
-0.2855
-0.049
0.3505
-0.314
0.344
0.2955
0.31
-0.279
-0.4615
0.046
0.4825
0.3625
0.4925
0.4085
-0.4435
0.45
-0.034
-0.096
0.1665
-0.342
0.1225
0.2095
-0.0835
0.068
0.3
0.0525
0.2165
0.2785
0.0755
0.251
-0.0395
-0.496
-0.155
-0.081
0.2895
-0.0695
0.1625
-0.041
0.3985
-0.2415
0.041
0.394
-0.1725
-0.2565
0.4605
-0.107
0.1605
0.2975
-0.227
0.3545
0.3225
-0.287
-0.261
0.292
-0.461
0.005
-0.466
-0.218
-0.1145
-0.2085
-0.4215
-0.469
0.145
-0.2125
-0.415
0.478
0.0175
0.0735
-0.3815
0.1255
-0.213
-0.4935
0.005
-0.0925
0.1165
0.228
-0.1185
-0.327
0.1075
-0.0935
0.3915
0.419
0.005
0.221
0.428
-0.2525
0.2645
0.0525
-0.1205
-0.2155
-0.1035
-0.1195
-0.427
0.107
-0.32
0.01
-0.2515
-0.46
-0.342
0.482
0.375
-0.413
0.1785
0.1475
0.067
0.316
0.2075
0.331
-0.325
-0.1895
-0.377
0.361
0.174
0.4785
-0.1005
-0.3405
0.0255
0.424
-0.141
0.3375
-0.287
0.465
-0.3065
0.334
-0.271
0.4065
0.4335
0.398
-0.2725
-0.3935
-0.021
-0.1585
-0.4855
0.1255
0.0315
0.304
-0.26
0.3575
-0.3465
-0.388
0.0395
0.433
-0.123
-0.4315
-0.339
0.0355
0.206
-0.406
-0.293
-0.48
0.484
-0.1755
0.1805
-0.1795
0.2685
0.41
0.393
0.3445
-0.082
0.1605
0.382
0.3095
0.1035
-0.432
0.3315
0.2815
0.346
-0.4515
-0.053
0.0955
0.419
0.168
0.2705
-0.253
-0.202
-0.2205
0.0875
-0.375
0.1725
0.1935
-0.3
0.339
0.1905
-0.293
-0.3775
-0.3455
0.1605
0.194
0.3565
0.1215
0.411
-0.1045
-0.0605
-0.0075
-0.2705
0.2295
-0.1705
-0.1915
-0.263
-0.1205
0.189
0.157
0.147
0.1115
-0.399
-0.184
0.054
-0.0665
-0.478
-0.0115
-0.178
0.2675
-0.3285
0.2245
-0.04
-0.4575
-0.3815
-0.104
0.4455
0.1765
-0.3795
-0.348
-0.3085
0.3255
0.184
0.0235
-0.272
-0.2225
-0.483
0.068
0.45
-0.221
0.388
-0.2075
-0.496
0.0425
-0.308
-0.421
-0.394
0.3065
0.1005
-0.273
0.1715
-0.132
-0.201
-0.357
-0.2765
0.215
-0.468
-0.313
0.1105
0.4335
-0.137
0.06
-0.241
0.037
-0.035
0.321
0.427
0.077
-0.4125
-0.224
-0.084
-0.046
0.0385
-0.457
0.3795
0.3785
0.22
0.4175
0.35
-0.4605
-0.2105
-0.3615
-0.424
0.393
-0.02
0.3235
0.026
0.041
-0.2005
0.013
-0.2545
0.33
0.457
-0.484
0.4155
-0.1725
-0.4665
-0.033
-0.4225
-0.129
-0.3485
0.029
0.219
-0.176
0.3105
-0.2825
0.329
-0.244
-0.237
-0.155
0.4945
-0.3855
-0.1635
0.071
0.144
-0.276
-0.016
-0.1345
-0.443
0.141
-0.2055
-0.114
-0.223
0.074
-0.4695
0.086
-0.0035
0.022
-0.373
0.052
0.345
-0.247
0.34
-0.021
0.388
0.26
-0.0805
0.2515
-0.418
-0.238
0.4945
-0.23
-0.222
0.4545
0.0185
-0.3695
-0.007
-0.114
-0.128
0.1915
0.3435
0.1675
-0.0905
-0.064
-0.424
0.2655
-0.2485
-0.3555
-0.2065
-0.2755
0.221
-0.1935
-0.3715
0.2105
-0.0005
0.2415
-0.2255
0.357
0.1825
0.3835
0.3045
0.232
-0.2165
0.2945
0.1465
-0.476
-0.392
-0.1775
-0.4445
0.3995
-0.4075
-0.39
-0.35
-0.0645
0.2085
-0.323
0.343
-0.0965
-0.097
-0.3775
0.0085
-0.2255
-0.042
0.357
0.041
0.1875
-0.3585
0.067
-0.0455
0.2765
0.356
0.1355
0.2035
-0.012
0.387
-0.389
-0.116
0.115
0.289
