0.4975
-0.1895
0.07
-0.4375
-0.049
-0.3665
0.4415
0.4275
-0.2135
-0.4465
0.314
0.443
0.114
0.295
-0.132
-0.1375
-0.3975
-0.24
0.334
-0.0285
-0.1715
-0.1135
-0.322
-0.227
0.086
-0.3455
0.0135
-0.1765
-0.033
0.4615
-0.102
0.2475
0.036
-0.319
0.035
0.167
0.3985
-0.4355
-0.3955
0.284
-0.4755
0.251
0.388
0.3245
0.206
-0.073
0.269
0.4265
0.2355
0.424
0.313
0.157
0.218
-0.248
-0.073
0.111
-0.3675
-0.2035
-0.0235
-0.204
0.1195
0.118
-0.04
-0.175
0.155
-0.4335
-0.093
-0.0675
-0.2405
0.2005
-0.0365
-0.4625
-0.345
-0.4505
-0.0535
0.077
-0.002
-0.1465
0.067
-0.3415
-0.1145
0.087
0.0875
0.043
-0.352
0.2405
-0.471
-0.2165
0.254
0.424
0.0345
0.1015
0.0875
0.3085
-0.3355
-0.0935
-0.2095
0.0625
-0.331
0.139
-0.4805
-0.164
0.167
-0.465
-0.04
0.275
0.002
0.168
0.305
0.3495
-0.3875
0.2785
0.2295
-0.182
0.41
-0.4675
-0.47
0.417
-0.3235
0.4145
-0.4625
-0.377
0.1785
-0.1645
-0.334
0.362
-0.05
-0.154
0.385
-0.46
-0.214
0.435
-0.316
0.4275
-0.3615
-0.4505
0.42
0.0525
-0.417
-0.1275
-0.262
-0.139
-0.0215
0.4045
0.311
0.2555
0.372
-0.231
0.398
-0.368
-0.124
-0.1265
-0.1145
-0.2455
0.1015
0.3965
0.1575
-0.169
0.3685
0.098
-0.175
-0.344
0.283
0.2645
0.063
-0.323
0.0945
0.3015
-0.3205
0.3605
-0.388
-0.0225
0.334
0.304
0.176
0.176
0.1445
0.2735
0.024
-0.09
0.4895
-0.3195
-0.052
0.2525
0.164
0.4125
0.0495
0.4295
-0.174
-0.258
-0.108
0.0885
0.1835
-0.0155
-0.4525
-0.418
0.0775
0.214
-0.159
0.134
-0.339
-0.4295
-0.4105
-0.4625
-0.4805
0.398
0.0395
0.0815
0.078
0.425
-0.2485
0.3835
0.307
-0.042
0.108
-0.3555
0.208
-0.47
-0.3995
0.15
0.1275
0.165
-0.025
0.4375
-0.0315
0.0235
0.2935
-0.151
0.2565
0.094
-0.402
0.4305
-0.0675
0.3895
-0.251
0.419
-0.409
-0.09
0.233
0.2655
-0.127
0.4675
-0.149
-0.0995
0.49
0.0085
0.2815
-0.2745
0.376
0.4025
-0.126
0.0475
0.113
0.1905
-0.4935
-0.004
0.095
-0.348
0.0685
-0.0045
-0.3955
-0.31
0.325
0.484
0.3265
-0.179
-0.0495
0.417
-0.2915
0.189
-0.447
-0.2025
-0.203
-0.165
-0.223
0.1595
-0.1865
-0.4255
0.447
0.46
0.242
0.068
-0.0275
0.3535
-0.28
0.0505
-0.183
0.2415
0.383
0.253
-0.1765
0.4385
0.3415
-0.263
0.161
-0.317
-0.3575
-0.133
0.0735
0.1685
-0.4425
0.364
-0.4835
-0.3135
0.3495
-0.4235
-0.2495
-0.222
-0.0865
-0.1535
-0.318
0.02
-0.2955
0.1085
0.2535
0.036
0.217
0.4715
0.2635
-0.224
-0.496
0.209
-0.466
-0.0445
-0.1345
-0.3855
-0.044
-0.4405
0.174
-0.406
0.017
0.4465
0.0005
-0.2215
0.402
0.378
0.0515
-0.2145
-0.496
-0.3565
-0.2
-0.461
-0.1725
0.0365
0.0705
0.303
0.234
-0.2675
-0.017
-0.3755
-0.0345
-0.3295
0.103
-0.2025
0.1645
-0.152
0.33
0.0605
0.321
0.235
0.12
-0.3095
0.1035
-0.1805
0.329
-0.2645
-0.4805
0.426
0.2065
0.3755
0.4845
-0.069
0.467
0.12
0.476
0.4645
-0.119
-0.003
0.3845
0.062
-0.12
-0.277
0.076
0.049
0.128
-0.154
-0.157
-0.297
0.1135
0.0535
-0.4525
0.4905
-0.0355
-0.231
0.023
-0.391
-0.065
-0.492
0.207
-0.1655
0.2835
0.3075
0.026
0.1075
-0.36
-0.466
-0.297
0.4825
-0.1785
0.1995
0.467
-0.1675
0.176
-0.241
-0.1455
-0.1035
0.114
-0.4455
0.191
-0.0175
0.3925
0.3165
-0.188
-0.3475
0.3275
0.494
0.4665
0.198
-0.403
0.3665
0.0295
-0.127
0.2895
0.0495
0.2785
0.072
0.197
0.4685
-0.091
0.0935
-0.3575
-0.14
0.3815
0.414
0.0865
0.2145
-0.1855
-0.2945
0.414
-0.374
-0.005
-0.1195
-0.1835
-0.2755
-0.058
0.467
-0.0045
-0.127
0.2795
-0.354
-0.4325
0.005
0.3855
-0.0455
-0.3305
0.094
0.0425
-0.374
-0.0195
0.282
0.1995
0.1455
0.1455
-0.403
-0.1605
0.032
0.4345
-0.1025
0.0655
-0.3875
0.179
0.261
0.2835
0.471
-0.1285
-0.351
-0.444
0.065
-0.3925
0.311
-0.4235
-0.176
-0.3115
-0.2375
0.026
0.1375
-0.0255
-0.0735
0.244
0.4925
-0.3285
-0.3115
0.2245
-0.368
-0.0735
0.3495
0.2345
-0.281
0.3845
0.41
-0.468
-0.4025
0.307
0.1665
-0.0335
-0.1935
0.221
0.414
-0.417
-0.4795
0.0375
0.4775
-0.4815
0.169
0.2055
-0.125
-0.0435
-0.1175
0.071
0.2015
-0.443
0.008
0.1535
0.073
0.4405
-0.0095
-0.464
0.1515
0.044
0.022
-0.086
0.3365
0.18
-0.303
0.279
0.4785
0.0165
0.0215
0.296
-0.2805
0.4165
0.06
-0.1565
0.223
-0.0455
-0.306
-0.33
-0.4445
-0.074
-0.449
