0.0153608781071284
-0.413021025944975
0.368400839788023
0.35357847028858
0.305543758603873
-0.00894199208289223
-0.0907559455143007
0.110695718217922
-0.291747043711832
-0.499047312650309
0.548390991532845
0.388970003525109
-0.156569810747816
-0.146352276136373
-0.0832731856583699
0.186240347769523
0.349737527688757
-0.157104988780654
-0.322491405319906
-0.378900924869196
0.159878382804055
0.0604413077848033
-0.476053566480816
-0.51052497405049
0.0105133389141294
0.175728657538439
-0.118231257685494
-0.355297022243577
-0.211795949298813
0.274869860337025
0.451325549707818
0.336505172114105
-0.188819550907207
0.0133454811363999
-0.070376916859698
-0.501337824093265
-0.238034095209333
-0.288610029300431
-0.113276839010797
0.285875309935993
0.188342176143566
-0.343060048518891
0.428060474324753
-0.472544988508001
-0.182259965749573
-0.147903578964924
0.158869659788097
-0.409517437241369
0.291494182220922
0.29403149601147
0.753310268285827
-0.25797030430048
-0.22189004914523
-0.332333775986701
0.435520558028136
-0.0108450764875983
-0.469111243184499
0.358243160179378
-0.206668966575795
-0.386681985576974
-0.00914367077659248
-0.269812085975752
-0.195784799370078
-0.0936061237028483
-0.0730784746762704
0.253728839723841
0.0485487813987695
0.309621901279702
0.37881464450943
-0.0982278556340371
0.309826871883481
0.109885812168531
0.440423271529188
-0.129988690227784
0.317151413220285
-0.446629692955088
0.0997352963943057
-0.526144406469562
0.123450009824948
-0.360513452314425
-0.116211343929725
-0.238050658725657
-0.162933127705439
-0.0290445987477493
0.417259702873567
-0.212404049904232
0.0218948727668117
-0.381498362699317
0.0270220085264014
0.418061681020964
0.864214835202078
-0.137968792749301
0.389479597959736
-0.258596609712564
0.183189954048142
-0.47655107820888
0.311273292338008
-0.00914788542718178
0.0451421624873563
0.0355617027731483
0.696018828655133
0.307601021809584
-0.315933222215906
-0.142276266424954
-0.125618051992592
-0.300168401664251
-0.23813350542282
0.379552403920134
-0.203394612587598
0.356747728497855
0.746235874139332
-0.47647964178013
-0.284300570482941
-0.373641012481495
-0.386866875025036
0.28667926223306
0.363966024276796
0.314900976327829
-0.0562850163903419
-0.375625595387877
0.0961981969877339
-0.0994916042096344
-0.233353615396742
0.437274796922263
-0.0445699950696314
-0.500021528124552
0.184460764603223
0.176680840638418
0.134455415619749
0.273715051487542
0.121088993438527
-0.431080096859667
-0.0960593457465671
-0.444254361948135
-0.146408068002502
-0.357447776782099
-0.463737916821641
0.450288770117239
-0.459913286965572
0.190440072747425
-0.0943517359711354
0.0998940364138551
0.294394297852659
0.135943344125427
-0.458535435488867
0.378689832810489
-0.383264345281425
0.242152751913184
-0.417813287528212
0.379832667615277
0.0454256700774993
0.467731495314085
-0.468238727415944
-0.101079888920778
-0.179528479994584
-0.162739488522621
0.0105886765566215
-0.273827210414935
0.355342912184722
-0.142182081860852
