-0.3985
-0.378
0.404
0.3725
0.349
0.0135
-0.052
0.1545
-0.26
-0.4545
0.1385
0.423
-0.122
-0.128
-0.041
0.208
0.386680404956639
-0.102687095593692
-0.28568261786584
-0.326174476871222
-0.236818752681343
0.111442274558397
-0.445609396956586
-0.486367932919348
0.0473828557739876
0.212163791535943
-0.0683342948578402
-0.298949436402976
-0.182309965571015
0.322627203067585
0.074166330893511
0.36579124974899
-0.161819595043361
0.0398129044063076
-0.0301826178658403
-0.474674476871222
-0.203318752681343
-0.235557725441603
-0.0901093969565857
0.328132067080652
-0.195617144226012
-0.298336208464057
0.47116570514216
-0.441449436402976
-0.146309965571015
-0.123372796932415
0.186666330893511
-0.37120875025101
0.317680404956639
0.343312904406308
0.36881738213416
-0.218174476871222
-0.187318752681343
-0.297557725441603
0.470890603043414
0.0151320670806524
-0.438617144226012
0.412163791535943
-0.16483429485784
-0.331949436402976
-0.404809965571015
-0.231872796932415
-0.168333669106489
-0.0747087502510096
-0.0335
0.274
0.084
0.3495
0.408
-0.0575
-0.0855
0.1415
0.4725
-0.113
0.3565
-0.4265
0.135
-0.4865
0.1525
-0.32
-0.4955
-0.209
-0.1335
-0.0135
0.4535
-0.194
0.0545
-0.345
0.054
0.4555
0.451
-0.1035
0.4245
-0.24
0.226
-0.4545
0.3495
0.034
0.0765
0.0795
0.2865
0.3415
-0.2815
-0.124
-0.0835
-0.2785
-0.2005
0.422
-0.1725
0.4
0.373
-0.449
-0.2565
-0.359
-0.3525
0.304
0.395
0.3495
-0.0305
-0.34
-0.2805
-0.071
-0.2045
0.4525
-0.009
-0.482
0.2165
0.2125
0.161
0.3105
-0.2765
-0.399
-0.0635
-0.427
-0.1065
-0.337
-0.428
0.4905
-0.4305
0.2315
-0.494
0.1325
0.3275
0.1535
-0.418
0.3995
-0.347
0.283
-0.388
0.4215
-0.35
0.4995
-0.436
-0.084
-0.14
-0.1425
0.046
-0.234
0.3845
-0.1015
0.005
0.087
-0.2395
0.0165
0.1765
0.2715
0.1145
-0.3295
0.2475
0.4845
0.2315
0.4045
0.28
0.238
-0.346
0.087
0.1015
0.1415
0.37
0.0915
0.365
0.433
0.1005
0.2395
0.1605
-0.276
-0.463
-0.4795
0.2125
-0.4645
0.1165
0.306
-0.394
0.171
-0.2735
-0.0815
-0.1285
-0.1895
0.477
-0.1895
-0.215
0.482
-0.4645
-0.373
-0.3105
-0.2545
-0.2805
-0.1745
-0.2385
0.273
0.256
0.4045
-0.1045
-0.207
0.0335
0.0715
0.4865
0.021
0.356
-0.048
0.234
0.0935
-0.0425
0.2115
-0.1325
0.4255
0.298
-0.3915
0.0115
0.235
-0.285
-0.2095
0.1645
0.059
-0.194
0.3825
0.3975
-0.027
0.0495
-0.0855
-0.496
0.2115
0.2585
0.439
-0.2205
0.212
-0.09
0.313
-0.3625
0.155
-0.068
0.3505
-0.0455
0.0245
0.076
0.1915
0.024
-0.1765
0.259
-0.236
-0.053
-0.3895
0.314
0.0265
0.058
-0.035
-0.26
0.3365
0.4865
0.1505
0.1735
0.013
0.4715
-0.059
-0.052
-0.4775
0.335
0.018
-0.0685
0.1555
0.0155
0.485
0.471
0.3565
-0.197
-0.136
0.3355
-0.3605
0.483
0.1145
-0.142
0.0735
0.2135
-0.2145
0.467
0.3935
0.397
-0.268
-0.119
0.314
-0.028
0.0735
0.326
-0.0135
0.481
0.4185
0.379
-0.4865
-0.4235
0.0535
0.356
-0.4945
0.3915
-0.3965
0.2485
-0.038
-0.3605
0.457
-0.277
-0.3065
0.1295
-0.4
0.3535
-0.128
-0.2075
-0.4005
0.2995
0.186
-0.026
0.0545
-0.375
0.103
-0.363
0.117
-0.317
0.4415
-0.341
-0.016
0.375
-0.116
-0.015
0.3215
-0.437
-0.071
0.258
-0.148
0.1815
0.11
0.037
0.005
0.2535
0.4395
-0.4915
-0.3125
-0.3155
-0.128
0.22
-0.0465
-0.306
0.381
-0.381
-0.307
0.0395
0.022
-0.072
-0.2475
0.3685
-0.2255
0.42
0.3065
-0.1975
0.155
-0.418
0.339
0.208
0.3075
-0.463
-0.076
0.1135
0.44
-0.0825
-0.311
-0.3515
0.4685
0.3005
-0.315
0.0945
0.449
-0.0675
0.311
-0.2785
0.205
-0.21
0.494
-0.2355
-0.208
-0.218
0.0405
-0.499
0.005
-0.017
-0.093
0.1895
0.23
-0.298
-0.402
0.3575
-0.331
-0.021
-0.1235
-0.1655
-0.204
0.3395
-0.2465
-0.037
0.43
-0.456
0.0705
0.221
-0.2575
0.158
0.419
0.3415
-0.3915
0.0845
0.0975
-0.135
-0.412
0.0745
-0.0845
0.0255
-0.004
-0.0775
-0.3915
-0.043
-0.49
-0.0005
-0.0815
0.2665
0.202
-0.1725
-0.075
-0.0305
-0.444
-0.0235
0.4255
0.3655
-0.4635
0.0305
-0.1655
-0.252
0.2115
0.319
0.2585
0.347
0.0635
0.0655
0.081
-0.3545
0.1045
0.233
0.2695
0.094
-0.4365
0.351
0.338
0.373
0.231
0.2965
-0.047
-0.0695
0.1255
0.3035
-0.481
0.4145
-0.2675
-0.051
0.2855
0.132
0.159
0.2315
-0.172
0.0575
-0.26
-0.3325
0.314
0.1765
0.164
-0.239
0.393
-0.0555
0.418
-0.2275
-0.338
0.4685
0.0575
0.331
-0.094
-0.2955
0.138
-0.448
-0.366
-0.26
-0.423
0.404
0.1225
0.4075
0.3
0.3435
0.114
-0.386
0.28
0.4485
-0.014
0.3725
-0.095
-0.288
-0.146
0.396
-0.463
-0.3385
-0.291
-0.0305
0.403
-0.492
0.012
-0.1475
0.1415
-0.45
-0.143
-0.0985
-0.457
0.0805
0.494
0.1065
0.097
-0.412
-0.02
-0.164
0.0445
0.406
0.3765
0.32
0.147
0.2785
0.164
0.4695
0.2865
-0.2105
0.0635
-0.1545
-0.0235
0.01
-0.3325
-0.0235
0.343
0.1645
-0.1635
-0.4315
-0.1085
