0.686288949121557
-0.203551776708934
0.0562305966345641
-0.446044037108781
-0.0601684710524144
-0.377458339497826
0.428832972150144
0.416552794155226
-0.227156529832165
-0.461017272841312
0.502788949121557
0.428948223291066
0.100230596634564
0.286455962891219
-0.143168471052414
-0.148458339497826
-0.410167027849856
-0.250947205844774
0.320343470167835
-0.0430172728413121
0.0172889491215567
-0.127551776708934
-0.335769403365436
-0.235544037108781
0.0748315289475856
-0.356458339497826
0.000832972150143805
-0.187447205844774
-0.0466565298321648
0.446982727158688
0.0867889491215567
0.233448223291066
0.0222305966345641
-0.327544037108781
0.0238315289475856
0.156041660502174
0.385832972150144
-0.446447205844774
-0.409156529832165
0.269482727158688
-0.286711050878443
0.236948223291066
0.374230596634564
0.315955962891219
0.194831528947586
-0.0839583394978257
0.256332972150144
0.415552794155226
0.221843470167835
0.409482727158688
0.501788949121557
0.142948223291066
0.204230596634564
-0.256544037108781
-0.0841684710524144
0.100041660502174
-0.380167027849856
-0.214447205844774
-0.0371565298321648
-0.218517272841312
0.308288949121557
0.103948223291066
-0.0537694033654359
-0.183544037108781
0.143831528947586
-0.444458339497826
-0.105667027849856
-0.0784472058447737
-0.254156529832165
0.185982727158688
0.152288949121557
-0.476551776708934
-0.358769403365436
-0.459044037108781
-0.0646684710524144
0.0660416605021743
-0.0146670278498562
-0.157447205844774
0.0533434701678353
-0.356017272841312
0.0742889491215567
0.0729482232910663
0.0737305966345641
0.0344559628912194
-0.363168471052414
0.229541660502174
-0.483667027849856
-0.227447205844774
0.240343470167835
0.409482727158688
0.223288949121557
0.0874482232910663
0.0737305966345641
0.299955962891219
-0.346668471052414
-0.104458339497826
-0.222167027849856
0.0515527941552263
-0.344656529832165
0.124482727158688
-0.291711050878443
-0.178051776708934
0.153230596634564
-0.473544037108781
-0.0511684710524144
0.264041660502174
-0.0106670278498562
0.157052794155226
0.291343470167835
0.334982727158688
-0.198711050878443
0.264448223291066
0.215730596634564
-0.190544037108781
0.398831528947586
-0.478458339497826
-0.482667027849856
0.406052794155226
-0.337156529832165
0.399982727158688
-0.273711050878443
-0.391051776708934
0.164730596634564
-0.173044037108781
-0.345168471052414
0.351041660502174
-0.0626670278498562
-0.164947205844774
0.371343470167835
-0.474517272841312
-0.0252110508784433
0.420948223291066
-0.329769403365436
0.418955962891219
-0.372668471052414
-0.461458339497826
0.407332972150144
0.0415527941552263
-0.430656529832165
-0.142017272841312
-0.0732110508784433
-0.153051776708934
-0.0352694033654359
0.395955962891219
0.299831528947586
0.244541660502174
0.359332972150144
-0.241947205844774
0.384343470167835
-0.382517272841312
0.0647889491215567
-0.140551776708934
-0.128269403365436
-0.254044037108781
0.0903315289475856
0.385541660502174
0.144832972150144
-0.179947205844774
0.354843470167835
0.0834827271586879
