0.373114154420926
0.316238857590257
-0.431792279733146
0.338619886274494
0.258521668183731
-0.0505352628810424
0.328156037975795
-0.237483497043695
-0.445376904190905
-0.298551162578412
-0.214885845579074
0.416238857590257
0.287707720266854
0.346119886274494
0.346521668183731
-0.0795352628810424
-0.000843962024204812
-0.479983497043695
-0.206376904190905
0.294948837421588
-0.101885845579074
-0.309261142409743
0.422207720266854
0.116619886274494
-0.335478331816269
0.0559647371189576
0.346156037975795
0.430516502956305
-0.254876904190905
0.338948837421588
-0.323885845579074
0.465738857590257
0.403207720266854
0.287119886274494
-0.506978331816269
-0.176035262881042
-0.0888439620242048
0.0670165029563048
-0.391876904190905
0.0869488374215882
0.0986141544209257
-0.297761142409743
0.240707720266854
-0.036380113725506
0.194021668183731
-0.318035262881042
-0.0438439620242048
-0.501483497043695
-0.508876904190905
-0.257551162578412
0.388114154420926
0.0267388575902575
0.0522077202668541
-0.184880113725506
-0.304478331816269
0.166464737118958
0.381656037975795
-0.0609834970436952
0.165623095809095
-0.199551162578412
0.0916141544209257
0.383738857590258
-0.499292279733146
-0.186380113725506
0.405021668183731
-0.196035262881042
-0.498843962024205
-0.511483497043695
0.345123095809095
0.119948837421588
-0.502885845579074
0.418238857590257
0.395707720266854
0.305119886274494
-0.423978331816269
-0.319535262881042
-0.0623439620242048
-0.0534834970436952
0.414123095809095
0.579948837421588
-0.411885845579074
0.333238857590257
0.422707720266854
-0.398880113725506
0.330521668183731
0.133464737118958
-0.0988439620242048
0.0755165029563048
0.0831230958090947
-0.0760511625784118
-0.0693858455790743
0.458238857590257
0.384707720266854
0.406119886274494
0.375021668183731
0.199464737118958
-0.310843962024205
-0.0854834970436952
0.0506230958090947
-0.0120511625784118
-0.330885845579074
-0.0467611424097425
-0.362792279733146
-0.030380113725506
-0.375478331816269
0.454464737118958
0.119156037975795
0.235016502956305
-0.268876904190905
-0.387051162578412
-0.283385845579074
-0.0792611424097425
0.00820772026685412
0.183619886274494
-0.408478331816269
0.242464737118958
0.448656037975795
0.387016502956305
-0.0248769041909053
-0.131051162578412
0.390614154420926
-0.0882611424097425
-0.110792279733146
0.019119886274494
-0.430978331816269
-0.476535262881042
-0.478843962024205
0.477016502956305
0.421623095809095
-0.0255511625784118
0.479114154420926
-0.490761142409743
0.379707720266854
0.024619886274494
0.290521668183731
0.118964737118958
0.184156037975795
-0.0589834970436952
0.468123095809095
0.473948837421588
-0.497385845579074
0.151738857590257
-0.172292279733146
0.068119886274494
-0.413478331816269
-0.506035262881042
-0.0623439620242048
-0.310983497043695
0.306123095809095
-0.270051162578412
0.238614154420926
-0.211761142409743
0.423207720266854
-0.220380113725506
-0.0229783318162689
0.241964737118958
-0.447843962024205
0.105516502956305
-0.107876904190905
-0.301051162578412
